Language model created by QuickLM on Sat Jan 28 15:27:18 EST 2023
Copyright (c) 1996-2010 Carnegie Mellon University and Alexander I. Rudnicky

The model is in standard ARPA format, designed by Doug Paul while he was at MITRE.

The code that was used to produce this language model is available in Open Source.
Please visit http://www.speech.cs.cmu.edu/tools/ for more information

The (fixed) discount mass is 0.5. The backoffs are computed using the ratio method.
This model based on a corpus of 105 sentences and 211 words

\data\
ngram 1=211
ngram 2=461
ngram 3=474

\1-grams:
-1.1537 </s> -0.3010
-1.1537 <s> -0.2272
-2.1749 A -0.2978
-2.6978 ABOUT -0.2635
-3.1749 AFTERNOON -0.2694
-3.1749 AGREE -0.2694
-2.8739 ALL -0.3002
-2.6978 AM -0.2993
-3.1749 AN -0.3007
-3.1749 ANNOYING -0.2694
-3.1749 ANY -0.3007
-2.8739 ANYTHING -0.2694
-1.9197 ARE -0.2866
-2.8739 AT -0.2999
-2.4760 BACK -0.2682
-2.4760 BE -0.2984
-3.1749 BEEN -0.3007
-3.1749 BEING -0.3007
-3.1749 BETTER -0.2694
-3.1749 BITE -0.2964
-3.1749 BLESS -0.2899
-3.1749 BOTHER -0.2899
-3.1749 BUSY -0.3004
-3.1749 BUT -0.2952
-3.1749 BUY -0.3007
-2.6978 CALL -0.2993
-2.8739 CAN -0.2952
-2.4760 CANT -0.2996
-3.1749 CATCH -0.2981
-3.1749 CHANCE -0.2694
-3.1749 CHAT -0.2694
-3.1749 CHECK -0.3004
-2.8739 COFFEE -0.2679
-2.8739 COMING -0.2691
-3.1749 COMPLAIN -0.2694
-3.1749 COMPLAINING -0.3002
-3.1749 CONCENTRATE -0.2694
-3.1749 COST -0.2694
-2.8739 COULD -0.2869
-3.1749 COULDN’T -0.2993
-3.1749 COUNTRY -0.2694
-2.8739 DAYS -0.2694
-3.1749 DID -0.2899
-2.8739 DINNER -0.2675
-2.1749 DO -0.2503
-2.8739 DOES -0.2967
-3.1749 DOESNT -0.3007
-3.1749 DOG -0.2999
-3.1749 DOGS -0.2694
-3.1749 DOING -0.2694
-2.3968 DONT -0.2978
-3.1749 DOUBT -0.2969
-3.1749 DRIVE -0.3007
-2.6978 EAT -0.2688
-3.1749 EATING -0.2899
-3.1749 EVERYTHING -0.3004
-3.1749 EXCITING -0.2694
-3.1749 EXHAUSTED -0.2993
-3.1749 FAR -0.2987
-3.1749 FED -0.2996
-2.8739 FEEL -0.3002
-3.1749 FEELING -0.2993
-3.1749 FLIGHT -0.2694
-2.5729 FOR -0.2958
-3.1749 FOREVER -0.3007
-3.1749 FORGET -0.2964
-2.6978 FREE -0.2644
-3.1749 FROM -0.2694
-3.1749 FRUSTRATING -0.2694
-2.3968 GET -0.2931
-2.8739 GETTING -0.2987
-3.1749 GIVE -0.2993
-2.8739 GO -0.2644
-2.3298 GOING -0.2669
-2.6978 GOOD -0.2679
-3.1749 GOT -0.2999
-2.8739 GRAB -0.2981
-3.1749 HAPPENING -0.2996
-2.5729 HAVE -0.2866
-3.1749 HAVING -0.2694
-3.1749 HE -0.2949
-3.1749 HELP -0.2899
-3.1749 HELPING -0.2993
-2.6978 HOME -0.2666
-3.1749 HOPE -0.2987
-3.1749 HOUR -0.2694
-2.2207 HOW -0.2872
-3.1749 HOWS -0.2990
-1.8739 I -0.2919
-2.8739 IF -0.2839
-3.1749 IMPORTANT -0.2694
-3.1749 IN -0.3007
-1.8527 IS -0.2823
-2.0288 IT -0.2590
-3.1749 JOKING -0.2694
-2.8739 JUST -0.2993
-2.8739 KEEN -0.2964
-3.1749 KEYS -0.2694
-3.1749 KNOW -0.3004
-3.1749 LATE -0.2694
-3.1749 LEAST -0.3004
-2.4760 LET -0.2946
-3.1749 LIFT -0.2694
-2.6978 LIKE -0.2919
-3.1749 LONG -0.2993
-2.8739 LOOKING -0.2679
-3.1749 LOVE -0.2964
-3.1749 MAKE -0.2899
-3.1749 MAKING -0.2987
-3.1749 MATTER -0.2694
-2.3968 ME -0.2949
-3.1749 MEET -0.2996
-3.1749 MILK -0.2694
-3.1749 MILLION -0.2694
-2.8739 MIND -0.2691
-3.1749 MINUTE -0.2694
-3.1749 MISERABLE -0.3004
-3.1749 MOVIE -0.3002
-2.5729 MUCH -0.2663
-2.5729 MY -0.2987
-2.6978 NEED -0.2958
-3.1749 NEVER -0.3007
-3.1749 NEXT -0.3007
-3.1749 NIGHT -0.2694
-2.5729 NO -0.2993
-3.1749 NOISE -0.2694
-3.1749 NOT -0.3007
-2.6978 OF -0.2978
-3.1749 OFF -0.2999
-2.8739 OK -0.2694
-2.3968 ON -0.2964
-3.1749 ONE -0.3002
-2.8739 OR -0.2940
-2.8739 OUT -0.2996
-3.1749 PIZZA -0.3007
-3.1749 PLANS -0.2999
-2.8739 PLEASE -0.2679
-3.1749 POPPING -0.3004
-2.8739 QUICKLY -0.2631
-3.1749 QUIET -0.2999
-3.1749 RATHER -0.3007
-3.1749 READING -0.2694
-3.1749 REALLY -0.3007
-3.1749 REMEMBER -0.2694
-3.1749 RIDICULOUS -0.2694
-3.1749 RIGHT -0.2996
-3.1749 SAFE -0.2694
-3.1749 SATURDAY -0.2694
-3.1749 SECOND -0.2694
-2.8739 SEE -0.2685
-3.1749 SHOPS -0.2993
-2.6978 SHOULD -0.2934
-2.2718 SO -0.2657
-3.1749 SOME -0.3004
-3.1749 SOUND -0.2694
-3.1749 STAY -0.3004
-3.1749 STRAIGHT -0.2694
-3.1749 STRESS -0.2694
-3.1749 STUNNING -0.2949
-3.1749 SWEAT -0.3007
-3.1749 TAKE -0.2996
-3.1749 THANK -0.2899
-2.8739 THANKS -0.2663
-2.4760 THAT -0.2928
-2.4760 THE -0.2993
-3.1749 THERE -0.2694
-3.1749 THESE -0.3004
-3.1749 THEY’RE -0.3007
-2.8739 THINGS -0.2955
-3.1749 THINK -0.3007
-3.1749 THINKING -0.3002
-2.4760 THIS -0.2993
-3.1749 THOSE -0.3004
-2.3968 TIME -0.2522
-3.1749 TIP -0.3002
-1.9708 TO -0.2558
-2.3968 TODAY -0.2694
-3.1749 TOGETHER -0.2993
-3.1749 TONGUE -0.3007
-2.6978 TONIGHT -0.2694
-3.1749 TOO -0.2999
-3.1749 UNWIND -0.2996
-2.4760 UP -0.2641
-2.8739 US -0.2964
-3.1749 WAIT -0.2964
-3.1749 WALK -0.2694
-2.6978 WANT -0.2964
-3.1749 WAS -0.2999
-3.1749 WASTE -0.3002
-3.1749 WATCHING -0.2694
-3.1749 WAY -0.2694
-2.3968 WE -0.2919
-2.8739 WEATHER -0.2975
-3.1749 WEDNESDAY -0.3007
-3.1749 WEEK -0.2694
-2.5729 WEEKEND -0.2694
-3.1749 WELL -0.3004
-1.9197 WHAT -0.2814
-2.6978 WHEN -0.2899
-2.6978 WHERE -0.2845
-2.6978 WILL -0.2993
-3.1749 WITH -0.3004
-3.1749 WONDERFUL -0.2694
-3.1749 WORKDAY -0.3004
-3.1749 WORRIES -0.2694
-3.1749 WORRY -0.3002
-3.1749 WORSE -0.2694
-2.5729 WOULD -0.2893
-3.1749 YES -0.3004
-1.5951 YOU -0.2460
-2.5729 YOUR -0.2987

\2-grams:
-2.3222 <s> ALL 0.0000
-1.8451 <s> ARE -0.1249
-2.3222 <s> BE -0.2553
-2.3222 <s> BLESS 0.0000
-1.8451 <s> CALL 0.0000
-2.0212 <s> CAN 0.0000
-2.3222 <s> COULD -0.1761
-1.8451 <s> DO -0.1461
-1.7202 <s> DONT -0.1249
-2.3222 <s> DRIVE 0.0000
-2.0212 <s> HAVE -0.1761
-2.3222 <s> HE 0.0000
-1.3680 <s> HOW 0.0000
-2.3222 <s> HOWS 0.0000
-1.1761 <s> I -0.0607
-2.3222 <s> IS -0.2906
-1.5441 <s> IT -0.1963
-2.3222 <s> JUST -0.1761
-1.8451 <s> LET -0.1461
-2.3222 <s> LONG 0.0000
-2.3222 <s> NEVER 0.0000
-1.8451 <s> NO -0.0969
-2.3222 <s> ON -0.2632
-2.3222 <s> PLEASE -0.1761
-1.8451 <s> SHOULD 0.0000
-2.3222 <s> SO -0.2730
-2.3222 <s> THANK 0.0000
-2.3222 <s> THANKS -0.1761
-1.7202 <s> THAT -0.0792
-2.3222 <s> THEY’RE 0.0000
-2.3222 <s> THINGS -0.1761
-2.3222 <s> WE -0.2632
-2.3222 <s> WELL 0.0000
-1.0669 <s> WHAT 0.0000
-2.0212 <s> WHERE -0.1249
-2.0212 <s> WOULD -0.1761
-2.3222 <s> YES 0.0000
-1.8451 <s> YOU -0.2775
-1.3010 A BITE 0.0000
-1.3010 A CHANCE 0.0000
-1.3010 A COFFEE -0.1761
-1.3010 A LIFT 0.0000
-1.3010 A MILLION 0.0000
-1.3010 A MINUTE 0.0000
-1.3010 A MOVIE 0.0000
-1.3010 A SECOND 0.0000
-1.3010 A WALK 0.0000
-1.3010 A WASTE 0.0000
-0.7782 ABOUT </s> -0.3010
-0.7782 ABOUT IT -0.2341
-0.7782 ABOUT THIS -0.2553
-0.3010 AFTERNOON </s> -0.3010
-0.3010 AGREE </s> -0.3010
-0.3010 ALL GOOD 0.0000
-0.7782 AM EXHAUSTED 0.0000
-0.7782 AM FREE -0.1249
-0.7782 AM JUST -0.1761
-0.3010 AN HOUR 0.0000
-0.3010 ANNOYING </s> -0.3010
-0.3010 ANY PLANS 0.0000
-0.3010 ANYTHING </s> -0.3010
-1.5563 ARE BEING 0.0000
-1.5563 ARE COMING -0.1761
-1.5563 ARE HAVING 0.0000
-1.5563 ARE JOKING 0.0000
-1.5563 ARE LOOKING -0.1761
-1.5563 ARE MY -0.2430
-0.4771 ARE YOU -0.2196
-0.6021 AT HOME -0.2218
-0.6021 AT LEAST 0.0000
-0.6990 BACK </s> -0.3010
-1.0000 BACK IN 0.0000
-0.6990 BACK WHEN 0.0000
-1.0000 BE BACK -0.2553
-1.0000 BE LATE 0.0000
-1.0000 BE QUIET 0.0000
-1.0000 BE RIGHT 0.0000
-1.0000 BE THERE 0.0000
-0.3010 BEEN ONE 0.0000
-0.3010 BEING RIDICULOUS 0.0000
-0.3010 BETTER </s> -0.3010
-0.3010 BITE TO -0.2730
-0.3010 BLESS YOU -0.2835
-0.3010 BOTHER YOU -0.2953
-0.3010 BUSY OR -0.1761
-0.3010 BUT I -0.2553
-0.3010 BUY MILK 0.0000
-0.3010 CALL ME -0.1761
-0.3010 CAN I -0.2788
-1.0000 CANT COMPLAIN 0.0000
-1.0000 CANT CONCENTRATE 0.0000
-1.0000 CANT REMEMBER 0.0000
-1.0000 CANT THINK 0.0000
-1.0000 CANT WAIT 0.0000
-0.3010 CATCH A -0.2788
-0.3010 CHANCE </s> -0.3010
-0.3010 CHAT </s> -0.3010
-0.3010 CHECK IF -0.1761
-0.6021 COFFEE </s> -0.3010
-0.6021 COFFEE THIS -0.2553
-0.6021 COMING </s> -0.3010
-0.6021 COMING FROM 0.0000
-0.3010 COMPLAIN </s> -0.3010
-0.3010 COMPLAINING ABOUT -0.2218
-0.3010 CONCENTRATE </s> -0.3010
-0.3010 COST </s> -0.3010
-0.6021 COULD DO -0.2788
-0.6021 COULD YOU -0.2953
-0.3010 COULDN’T GET -0.2632
-0.3010 COUNTRY </s> -0.3010
-0.3010 DAYS </s> -0.3010
-0.3010 DID YOU -0.2835
-0.6021 DINNER </s> -0.3010
-0.6021 DINNER ON -0.2632
-1.3010 DO </s> -0.3010
-1.3010 DO DINNER -0.1761
-1.3010 DO IT -0.2341
-1.3010 DO WE -0.2632
-0.5229 DO YOU -0.2653
-0.6021 DOES IT -0.2852
-0.6021 DOES PIZZA 0.0000
-0.3010 DOESNT MATTER 0.0000
-0.3010 DOG FOR -0.1761
-0.3010 DOGS </s> -0.3010
-0.3010 DOING </s> -0.3010
-1.0792 DONT AGREE 0.0000
-1.0792 DONT FEEL 0.0000
-1.0792 DONT FORGET 0.0000
-1.0792 DONT LET -0.2041
-1.0792 DONT STRESS 0.0000
-1.0792 DONT WORRY 0.0000
-0.3010 DOUBT IT -0.2341
-0.3010 DRIVE SAFE 0.0000
-0.4771 EAT </s> -0.3010
-0.7782 EAT OUT -0.1761
-0.3010 EATING YOU -0.2835
-0.3010 EVERYTHING OK 0.0000
-0.3010 EXCITING </s> -0.3010
-0.3010 EXHAUSTED TODAY 0.0000
-0.3010 FAR SO -0.2730
-0.3010 FED THE -0.2553
-0.3010 FEEL LIKE -0.1249
-0.3010 FEELING TODAY 0.0000
-0.3010 FLIGHT </s> -0.3010
-0.6021 FOR A -0.2553
-0.9031 FOR DINNER -0.1761
-0.9031 FOR TODAY 0.0000
-0.3010 FOREVER COMPLAINING 0.0000
-0.3010 FORGET TO -0.2872
-0.4771 FREE </s> -0.3010
-0.7782 FREE TO -0.2872
-0.3010 FROM </s> -0.3010
-0.3010 FRUSTRATING </s> -0.3010
-1.0792 GET A -0.2788
-1.0792 GET GOING -0.2688
-1.0792 GET HOME -0.2218
-1.0792 GET TOGETHER 0.0000
-1.0792 GET UP -0.2041
-1.0792 GET WORSE 0.0000
-0.6021 GETTING HOME -0.2218
-0.6021 GETTING UP -0.2041
-0.3010 GIVE ME -0.2632
-0.6021 GO </s> -0.3010
-0.6021 GO TO -0.2872
-0.4472 GOING </s> -0.3010
-1.1461 GOING ON -0.2632
-1.1461 GOING OR -0.1761
-0.4771 GOOD </s> -0.3010
-0.7782 GOOD CANT -0.2553
-0.3010 GOT MUCH -0.2430
-0.3010 GRAB A -0.2553
-0.3010 HAPPENING THIS -0.1461
-0.9031 HAVE A -0.2788
-0.9031 HAVE ANY 0.0000
-0.6021 HAVE YOU -0.2894
-0.3010 HAVING </s> -0.3010
-0.3010 HE IS -0.2906
-0.3010 HELP YOU -0.2953
-0.3010 HELPING ME -0.2632
-0.7782 HOME </s> -0.3010
-0.7782 HOME TODAY 0.0000
-0.7782 HOME TONIGHT 0.0000
-0.3010 HOPE SO -0.2730
-0.3010 HOUR </s> -0.3010
-1.2553 HOW ARE -0.1249
-1.2553 HOW DOES -0.1761
-0.6532 HOW IS -0.2460
-1.2553 HOW MUCH -0.2430
-1.2553 HOW STUNNING 0.0000
-1.2553 HOW WAS 0.0000
-0.3010 HOWS GOING -0.1091
-1.1249 I AM 0.0000
-1.0000 I CANT -0.0792
-1.3010 I DONT -0.2218
-1.6021 I DOUBT 0.0000
-1.6021 I HELP 0.0000
-1.6021 I MAKE 0.0000
-1.6021 I NEED -0.1249
-1.6021 I REALLY 0.0000
-1.6021 I SEE -0.1761
-1.6021 I TAKE 0.0000
-1.3010 I WILL 0.0000
-1.3010 I WOULD -0.1761
-0.6021 IF I -0.2672
-0.6021 IF YOU -0.2953
-0.3010 IMPORTANT </s> -0.3010
-0.3010 IN AN 0.0000
-1.6232 IS ALL 0.0000
-1.6232 IS BEEN 0.0000
-1.6232 IS EATING 0.0000
-1.6232 IS EVERYTHING 0.0000
-1.6232 IS FOR -0.2430
-1.6232 IS FOREVER 0.0000
-1.6232 IS GOING -0.1091
-1.6232 IS HAPPENING 0.0000
-1.6232 IS IT -0.2852
-1.6232 IS NOT 0.0000
-1.6232 IS OK 0.0000
-1.3222 IS ON -0.2218
-1.0212 IS SO -0.1761
-1.6232 IS THAT -0.2553
-1.6232 IS THE -0.2553
-1.3222 IS YOUR -0.1761
-0.8451 IT </s> -0.3010
-1.4472 IT BOTHER 0.0000
-1.4472 IT COST 0.0000
-1.4472 IT DOESNT 0.0000
-1.4472 IT GO -0.1761
-1.4472 IT GOING -0.1091
-0.7482 IT IS -0.2341
-0.3010 JOKING </s> -0.3010
-0.6021 JUST LET -0.2041
-0.6021 JUST POPPING 0.0000
-0.3010 KEEN TO -0.2730
-0.3010 KEYS </s> -0.3010
-0.3010 KNOW IF -0.1761
-0.3010 LATE </s> -0.3010
-0.3010 LEAST THINGS -0.1761
-0.6990 LET IT -0.2688
-1.0000 LET ME -0.2632
-0.6990 LET US 0.0000
-0.3010 LIFT </s> -0.3010
-0.7782 LIKE DOING 0.0000
-0.7782 LIKE IT -0.2341
-0.7782 LIKE TO -0.2872
-0.3010 LONG TIME -0.2632
-0.6021 LOOKING </s> -0.3010
-0.6021 LOOKING UP -0.2041
-0.3010 LOVE TO -0.2730
-0.3010 MAKE YOU -0.2953
-0.3010 MAKING SO -0.2730
-0.3010 MATTER </s> -0.3010
-1.0792 ME A -0.2788
-0.7782 ME BACK -0.2041
-1.0792 ME KNOW 0.0000
-1.0792 ME QUICKLY -0.1761
-1.0792 ME WHEN 0.0000
-0.3010 MEET UP -0.2553
-0.3010 MILK </s> -0.3010
-0.3010 MILLION </s> -0.3010
-0.6021 MIND </s> -0.3010
-0.6021 MIND HELPING 0.0000
-0.3010 MINUTE </s> -0.3010
-0.3010 MISERABLE WEATHER -0.1761
-0.3010 MOVIE TONIGHT 0.0000
-0.9031 MUCH </s> -0.3010
-0.9031 MUCH DOES -0.1761
-0.9031 MUCH GOING -0.2688
-0.9031 MUCH NOISE 0.0000
-0.9031 MY BACK -0.2041
-0.9031 MY KEYS 0.0000
-0.9031 MY TONGUE 0.0000
-0.9031 MY WAY 0.0000
-0.7782 NEED ANYTHING 0.0000
-0.4771 NEED TO -0.2730
-0.3010 NEVER BETTER 0.0000
-0.3010 NEXT WEEK 0.0000
-0.3010 NIGHT </s> -0.3010
-0.9031 NO SEE -0.1761
-0.9031 NO SWEAT 0.0000
-0.9031 NO THANKS -0.1761
-0.9031 NO WORRIES 0.0000
-0.3010 NOISE </s> -0.3010
-0.3010 NOT IMPORTANT 0.0000
-0.7782 OF MY -0.2430
-0.7782 OF THOSE 0.0000
-0.7782 OF TIME -0.2632
-0.3010 OFF MY -0.2430
-0.3010 OK </s> -0.3010
-1.0792 ON MY -0.2430
-1.0792 ON SATURDAY 0.0000
-1.0792 ON THE -0.2553
-1.0792 ON THESE 0.0000
-1.0792 ON WEDNESDAY 0.0000
-1.0792 ON YOUR -0.2430
-0.3010 ONE OF -0.2218
-0.6021 OR ARE -0.1249
-0.6021 OR WE -0.2632
-0.6021 OUT QUICKLY -0.1761
-0.6021 OUT TONIGHT 0.0000
-0.3010 PIZZA SOUND 0.0000
-0.3010 PLANS FOR -0.2430
-0.6021 PLEASE </s> -0.3010
-0.6021 PLEASE BE -0.2553
-0.3010 POPPING OUT -0.1761
-0.6021 QUICKLY </s> -0.3010
-0.6021 QUICKLY I -0.2788
-0.3010 QUIET FOR -0.1761
-0.3010 RATHER STAY 0.0000
-0.3010 READING </s> -0.3010
-0.3010 REALLY HOPE 0.0000
-0.3010 REMEMBER </s> -0.3010
-0.3010 RIDICULOUS </s> -0.3010
-0.3010 RIGHT BACK -0.2041
-0.3010 SAFE </s> -0.3010
-0.3010 SATURDAY </s> -0.3010
-0.3010 SECOND </s> -0.3010
-0.6021 SEE </s> -0.3010
-0.6021 SEE WHERE -0.2218
-0.3010 SHOPS TODAY 0.0000
-0.7782 SHOULD I -0.2900
-0.4771 SHOULD WE -0.2218
-1.2041 SO </s> -0.3010
-1.2041 SO ANNOYING 0.0000
-1.2041 SO EXCITING 0.0000
-1.2041 SO FAR 0.0000
-1.2041 SO FRUSTRATING 0.0000
-1.2041 SO GOOD -0.1249
-1.2041 SO MUCH -0.2430
-1.2041 SO WONDERFUL 0.0000
-0.3010 SOME COFFEE -0.1761
-0.3010 SOUND </s> -0.3010
-0.3010 STAY AT -0.1761
-0.3010 STRAIGHT </s> -0.3010
-0.3010 STRESS </s> -0.3010
-0.3010 STUNNING IS -0.2906
-0.3010 SWEAT OFF 0.0000
-0.3010 TAKE THE -0.2553
-0.3010 THANK YOU -0.2835
-0.6021 THANKS </s> -0.3010
-0.6021 THANKS A -0.2788
-1.0000 THAT GOING -0.1091
-0.3979 THAT IS -0.2576
-1.0000 THE DOG 0.0000
-1.0000 THE DOGS 0.0000
-1.0000 THE SHOPS 0.0000
-1.0000 THE TIP 0.0000
-1.0000 THE WEATHER -0.1761
-0.3010 THERE </s> -0.3010
-0.3010 THESE DAYS 0.0000
-0.3010 THEY’RE MAKING 0.0000
-0.6021 THINGS ARE -0.2888
-0.6021 THINGS COULDN’T 0.0000
-0.3010 THINK STRAIGHT 0.0000
-0.3010 THINKING ABOUT -0.2218
-1.0000 THIS AFTERNOON 0.0000
-1.0000 THIS COUNTRY 0.0000
-0.5229 THIS WEEKEND 0.0000
-0.3010 THOSE DAYS 0.0000
-1.0792 TIME </s> -0.3010
-1.0792 TIME ARE -0.1249
-1.0792 TIME DID 0.0000
-1.0792 TIME DO -0.2788
-1.0792 TIME IS -0.2798
-1.0792 TIME NO -0.2430
-0.3010 TIP OF -0.2218
-1.2041 TO </s> -0.3010
-1.5051 TO BE -0.2553
-1.5051 TO BUY 0.0000
-1.5051 TO CATCH 0.0000
-1.5051 TO CHAT 0.0000
-1.5051 TO DO -0.2788
-1.2041 TO EAT -0.1249
-1.5051 TO GET -0.2632
-1.5051 TO GO -0.1761
-1.5051 TO GRAB 0.0000
-1.5051 TO MEET 0.0000
-1.5051 TO THE -0.2553
-1.5051 TO THIS -0.1461
-1.5051 TO UNWIND 0.0000
-0.3010 TODAY </s> -0.3010
-0.3010 TOGETHER ON -0.2632
-0.3010 TONGUE BUT 0.0000
-0.3010 TONIGHT </s> -0.3010
-0.3010 TOO MUCH -0.2430
-0.3010 UNWIND THIS -0.1461
-0.6990 UP </s> -0.3010
-1.0000 UP NEXT 0.0000
-0.6990 UP TO -0.2583
-0.6021 US DO -0.2788
-0.6021 US GET -0.2632
-0.3010 WAIT TO -0.2872
-0.3010 WALK </s> -0.3010
-0.3010 WANT TO -0.2430
-0.3010 WAS YOUR -0.2430
-0.3010 WASTE OF -0.2218
-0.3010 WATCHING </s> -0.3010
-0.3010 WAY </s> -0.3010
-1.0792 WE ARE -0.2888
-1.0792 WE COULD -0.1761
-1.0792 WE EAT -0.2218
-1.0792 WE GRAB 0.0000
-1.0792 WE NEED -0.1249
-1.0792 WE WILL -0.1249
-0.6021 WEATHER TODAY 0.0000
-0.6021 WEATHER WE -0.2632
-0.3010 WEDNESDAY NIGHT 0.0000
-0.3010 WEEK </s> -0.3010
-0.3010 WEEKEND </s> -0.3010
-0.3010 WELL AT -0.1761
-1.5563 WHAT A -0.2788
-0.8573 WHAT ARE -0.1249
-1.0792 WHAT DO -0.1461
-0.9542 WHAT IS -0.2460
-1.5563 WHAT MISERABLE 0.0000
-0.9542 WHAT TIME -0.1249
-0.3010 WHEN YOU -0.2715
-0.4771 WHERE ARE -0.1065
-0.7782 WHERE YOU -0.2835
-0.4771 WILL BE -0.2041
-0.7782 WILL CHECK 0.0000
-0.3010 WITH ANYTHING 0.0000
-0.3010 WONDERFUL </s> -0.3010
-0.3010 WORKDAY LOOKING -0.1761
-0.3010 WORRIES </s> -0.3010
-0.3010 WORRY ABOUT -0.2218
-0.3010 WORSE </s> -0.3010
-0.9031 WOULD LOVE 0.0000
-0.9031 WOULD RATHER 0.0000
-0.6021 WOULD YOU -0.2894
-0.3010 YES PLEASE -0.1761
-1.4037 YOU </s> -0.3010
-1.4037 YOU ARE -0.2632
-1.8808 YOU BUSY 0.0000
-1.8808 YOU COMING -0.1761
-1.8808 YOU FED 0.0000
-1.8808 YOU FEEL 0.0000
-1.8808 YOU FEELING 0.0000
-1.5798 YOU FREE 0.0000
-1.4037 YOU GET -0.1761
-1.5798 YOU GETTING 0.0000
-1.8808 YOU GIVE 0.0000
-1.8808 YOU GOING -0.1091
-1.8808 YOU GOT 0.0000
-1.5798 YOU HAVE -0.1761
-1.5798 YOU KEEN 0.0000
-1.8808 YOU LIKE -0.2218
-1.8808 YOU MIND -0.1761
-1.8808 YOU NEED -0.2218
-1.8808 YOU READING 0.0000
-1.8808 YOU SOME 0.0000
-1.8808 YOU THINKING 0.0000
-1.8808 YOU TOO 0.0000
-1.8808 YOU UP -0.2041
-1.4037 YOU WANT 0.0000
-1.8808 YOU WATCHING 0.0000
-1.8808 YOU WITH 0.0000
-0.9031 YOUR FLIGHT 0.0000
-0.9031 YOUR MIND -0.1761
-0.9031 YOUR WEEKEND 0.0000
-0.9031 YOUR WORKDAY 0.0000

\3-grams:
-0.3010 <s> ALL GOOD
-0.3010 <s> ARE YOU
-0.3010 <s> BE RIGHT
-0.3010 <s> BLESS YOU
-0.3010 <s> CALL ME
-0.3010 <s> CAN I
-0.3010 <s> COULD YOU
-0.3010 <s> DO YOU
-0.9031 <s> DONT FORGET
-0.9031 <s> DONT LET
-0.9031 <s> DONT STRESS
-0.9031 <s> DONT WORRY
-0.3010 <s> DRIVE SAFE
-0.3010 <s> HAVE YOU
-0.3010 <s> HE IS
-1.2553 <s> HOW ARE
-1.2553 <s> HOW DOES
-0.6532 <s> HOW IS
-1.2553 <s> HOW MUCH
-1.2553 <s> HOW STUNNING
-1.2553 <s> HOW WAS
-0.3010 <s> HOWS GOING
-1.1461 <s> I AM
-0.9700 <s> I CANT
-1.1461 <s> I DONT
-1.4472 <s> I DOUBT
-1.4472 <s> I NEED
-1.4472 <s> I REALLY
-1.4472 <s> I SEE
-1.4472 <s> I WILL
-1.1461 <s> I WOULD
-0.3010 <s> IS EVERYTHING
-1.0792 <s> IT DOESNT
-0.3802 <s> IT IS
-0.3010 <s> JUST LET
-0.7782 <s> LET ME
-0.4771 <s> LET US
-0.3010 <s> LONG TIME
-0.3010 <s> NEVER BETTER
-0.7782 <s> NO SWEAT
-0.7782 <s> NO THANKS
-0.7782 <s> NO WORRIES
-0.3010 <s> ON MY
-0.3010 <s> PLEASE BE
-0.7782 <s> SHOULD I
-0.4771 <s> SHOULD WE
-0.3010 <s> SO FAR
-0.3010 <s> THANK YOU
-0.3010 <s> THANKS A
-0.3010 <s> THAT IS
-0.3010 <s> THEY’RE MAKING
-0.3010 <s> THINGS ARE
-0.3010 <s> WE COULD
-0.3010 <s> WELL AT
-1.5563 <s> WHAT A
-0.8573 <s> WHAT ARE
-1.0792 <s> WHAT DO
-0.9542 <s> WHAT IS
-1.5563 <s> WHAT MISERABLE
-0.9542 <s> WHAT TIME
-0.3010 <s> WHERE ARE
-0.3010 <s> WOULD YOU
-0.3010 <s> YES PLEASE
-0.4771 <s> YOU ARE
-0.7782 <s> YOU COMING
-0.3010 A BITE TO
-0.3010 A CHANCE </s>
-0.3010 A COFFEE THIS
-0.3010 A LIFT </s>
-0.3010 A MILLION </s>
-0.3010 A MINUTE </s>
-0.3010 A MOVIE TONIGHT
-0.3010 A SECOND </s>
-0.3010 A WALK </s>
-0.3010 A WASTE OF
-0.3010 ABOUT IT </s>
-0.3010 ABOUT THIS COUNTRY
-0.6021 ALL GOOD </s>
-0.6021 ALL GOOD CANT
-0.3010 AM EXHAUSTED TODAY
-0.3010 AM FREE </s>
-0.3010 AM JUST POPPING
-0.3010 AN HOUR </s>
-0.3010 ANY PLANS FOR
-0.3010 ARE BEING RIDICULOUS
-0.3010 ARE COMING FROM
-0.3010 ARE HAVING </s>
-0.3010 ARE JOKING </s>
-0.3010 ARE LOOKING UP
-0.3010 ARE MY KEYS
-1.3802 ARE YOU BUSY
-1.3802 ARE YOU FEELING
-1.3802 ARE YOU FREE
-1.0792 ARE YOU GETTING
-1.3802 ARE YOU GOING
-1.0792 ARE YOU KEEN
-1.3802 ARE YOU READING
-1.3802 ARE YOU THINKING
-1.3802 ARE YOU UP
-1.3802 ARE YOU WATCHING
-0.3010 AT HOME TONIGHT
-0.3010 AT LEAST THINGS
-0.3010 BACK IN AN
-0.3010 BACK WHEN YOU
-0.3010 BE BACK IN
-0.3010 BE LATE </s>
-0.3010 BE QUIET FOR
-0.3010 BE RIGHT BACK
-0.3010 BE THERE </s>
-0.3010 BEEN ONE OF
-0.3010 BEING RIDICULOUS </s>
-0.3010 BITE TO EAT
-0.3010 BLESS YOU </s>
-0.3010 BOTHER YOU TOO
-0.3010 BUSY OR ARE
-0.3010 BUT I CANT
-0.3010 BUY MILK </s>
-0.4771 CALL ME BACK
-0.7782 CALL ME WHEN
-0.6021 CAN I HELP
-0.6021 CAN I MAKE
-0.3010 CANT COMPLAIN </s>
-0.3010 CANT CONCENTRATE </s>
-0.3010 CANT REMEMBER </s>
-0.3010 CANT THINK STRAIGHT
-0.3010 CANT WAIT TO
-0.3010 CATCH A MOVIE
-0.3010 CHECK IF I
-0.3010 COFFEE THIS AFTERNOON
-0.3010 COMING FROM </s>
-0.3010 COMPLAINING ABOUT THIS
-0.3010 COULD DO DINNER
-0.3010 COULD YOU GIVE
-0.3010 COULDN’T GET WORSE
-0.3010 DID YOU GET
-0.3010 DINNER ON WEDNESDAY
-0.3010 DO DINNER ON
-0.3010 DO IT </s>
-0.3010 DO WE NEED
-1.0792 DO YOU FEEL
-0.7782 DO YOU HAVE
-0.6021 DO YOU WANT
-0.3010 DOES IT COST
-0.3010 DOES PIZZA SOUND
-0.3010 DOESNT MATTER </s>
-0.3010 DOG FOR A
-0.3010 DONT AGREE </s>
-0.3010 DONT FEEL LIKE
-0.3010 DONT FORGET TO
-0.3010 DONT LET IT
-0.3010 DONT STRESS </s>
-0.3010 DONT WORRY ABOUT
-0.3010 DOUBT IT </s>
-0.3010 DRIVE SAFE </s>
-0.3010 EAT OUT TONIGHT
-0.3010 EATING YOU </s>
-0.3010 EVERYTHING OK </s>
-0.3010 EXHAUSTED TODAY </s>
-0.3010 FAR SO GOOD
-0.3010 FED THE DOGS
-0.6021 FEEL LIKE DOING
-0.6021 FEEL LIKE IT
-0.3010 FEELING TODAY </s>
-0.6021 FOR A SECOND
-0.6021 FOR A WALK
-0.3010 FOR DINNER </s>
-0.3010 FOR TODAY </s>
-0.3010 FOREVER COMPLAINING ABOUT
-0.3010 FORGET TO BUY
-0.3010 FREE TO CHAT
-0.3010 GET A CHANCE
-0.3010 GET GOING OR
-0.3010 GET HOME </s>
-0.3010 GET TOGETHER ON
-0.3010 GET UP </s>
-0.3010 GET WORSE </s>
-0.3010 GETTING HOME TODAY
-0.3010 GETTING UP TO
-0.3010 GIVE ME A
-0.3010 GO TO THE
-0.3010 GOING ON THESE
-0.3010 GOING OR WE
-0.3010 GOOD CANT COMPLAIN
-0.3010 GOT MUCH GOING
-0.6021 GRAB A BITE
-0.6021 GRAB A COFFEE
-0.3010 HAPPENING THIS WEEKEND
-0.3010 HAVE A MINUTE
-0.3010 HAVE ANY PLANS
-0.6021 HAVE YOU FED
-0.6021 HAVE YOU GOT
-0.3010 HE IS FOREVER
-0.3010 HELP YOU WITH
-0.3010 HELPING ME QUICKLY
-0.3010 HOME TODAY </s>
-0.3010 HOME TONIGHT </s>
-0.3010 HOPE SO </s>
-0.3010 HOW ARE YOU
-0.3010 HOW DOES PIZZA
-0.9031 HOW IS GOING
-0.9031 HOW IS IT
-0.9031 HOW IS THAT
-0.9031 HOW IS YOUR
-0.3010 HOW MUCH DOES
-0.3010 HOW STUNNING IS
-0.3010 HOW WAS YOUR
-0.3010 HOWS GOING </s>
-0.7782 I AM EXHAUSTED
-0.7782 I AM FREE
-0.7782 I AM JUST
-0.9031 I CANT CONCENTRATE
-0.9031 I CANT REMEMBER
-0.9031 I CANT THINK
-0.9031 I CANT WAIT
-0.6021 I DONT AGREE
-0.6021 I DONT FEEL
-0.3010 I DOUBT IT
-0.3010 I HELP YOU
-0.3010 I MAKE YOU
-0.3010 I NEED TO
-0.3010 I REALLY HOPE
-0.3010 I SEE WHERE
-0.3010 I TAKE THE
-0.6021 I WILL BE
-0.6021 I WILL CHECK
-0.6021 I WOULD LOVE
-0.6021 I WOULD RATHER
-0.3010 IF I AM
-0.3010 IF YOU NEED
-0.3010 IN AN HOUR
-0.3010 IS ALL GOOD
-0.3010 IS BEEN ONE
-0.3010 IS EATING YOU
-0.3010 IS EVERYTHING OK
-0.3010 IS FOR DINNER
-0.3010 IS FOREVER COMPLAINING
-0.3010 IS GOING </s>
-0.3010 IS HAPPENING THIS
-0.3010 IS IT GOING
-0.3010 IS NOT IMPORTANT
-0.3010 IS OK </s>
-0.6021 IS ON THE
-0.6021 IS ON YOUR
-0.9031 IS SO ANNOYING
-0.9031 IS SO EXCITING
-0.9031 IS SO FRUSTRATING
-0.9031 IS SO WONDERFUL
-0.3010 IS THAT GOING
-0.3010 IS THE WEATHER
-0.6021 IS YOUR FLIGHT
-0.6021 IS YOUR WORKDAY
-0.3010 IT BOTHER YOU
-0.3010 IT COST </s>
-0.3010 IT DOESNT MATTER
-0.3010 IT GO </s>
-0.3010 IT GOING </s>
-1.0000 IT IS ALL
-1.0000 IT IS BEEN
-1.0000 IT IS NOT
-1.0000 IT IS OK
-1.0000 IT IS ON
-0.3010 JUST LET IT
-0.3010 JUST POPPING OUT
-0.6021 KEEN TO CATCH
-0.6021 KEEN TO GET
-0.3010 KNOW IF YOU
-0.3010 LEAST THINGS COULDN’T
-0.6021 LET IT BOTHER
-0.6021 LET IT GO
-0.3010 LET ME KNOW
-0.6021 LET US DO
-0.6021 LET US GET
-0.3010 LIKE DOING </s>
-0.3010 LIKE IT </s>
-0.3010 LIKE TO GRAB
-0.3010 LONG TIME NO
-0.3010 LOOKING UP </s>
-0.3010 LOVE TO </s>
-0.3010 MAKE YOU SOME
-0.3010 MAKING SO MUCH
-0.3010 ME A LIFT
-0.3010 ME BACK WHEN
-0.3010 ME KNOW IF
-0.3010 ME QUICKLY </s>
-0.3010 ME WHEN YOU
-0.3010 MEET UP NEXT
-0.3010 MIND HELPING ME
-0.3010 MISERABLE WEATHER WE
-0.3010 MOVIE TONIGHT </s>
-0.3010 MUCH DOES IT
-0.3010 MUCH GOING ON
-0.3010 MUCH NOISE </s>
-0.3010 MY BACK </s>
-0.3010 MY KEYS </s>
-0.3010 MY TONGUE BUT
-0.3010 MY WAY </s>
-0.3010 NEED ANYTHING </s>
-0.6021 NEED TO BE
-0.6021 NEED TO GO
-0.3010 NEVER BETTER </s>
-0.3010 NEXT WEEK </s>
-0.3010 NO SEE </s>
-0.3010 NO SWEAT OFF
-0.3010 NO THANKS </s>
-0.3010 NO WORRIES </s>
-0.3010 NOT IMPORTANT </s>
-0.3010 OF MY TONGUE
-0.3010 OF THOSE DAYS
-0.3010 OF TIME </s>
-0.3010 OFF MY BACK
-0.3010 ON MY WAY
-0.3010 ON SATURDAY </s>
-0.3010 ON THE TIP
-0.3010 ON THESE DAYS
-0.3010 ON WEDNESDAY NIGHT
-0.3010 ON YOUR MIND
-0.3010 ONE OF THOSE
-0.3010 OR ARE YOU
-0.3010 OR WE WILL
-0.3010 OUT QUICKLY I
-0.3010 OUT TONIGHT </s>
-0.3010 PIZZA SOUND </s>
-0.3010 PLANS FOR TODAY
-0.3010 PLEASE BE QUIET
-0.3010 POPPING OUT QUICKLY
-0.3010 QUICKLY I WILL
-0.3010 QUIET FOR A
-0.3010 RATHER STAY AT
-0.3010 REALLY HOPE SO
-0.3010 RIGHT BACK </s>
-0.3010 SEE WHERE YOU
-0.3010 SHOPS TODAY </s>
-0.3010 SHOULD I TAKE
-0.6021 SHOULD WE EAT
-0.6021 SHOULD WE GRAB
-0.3010 SO ANNOYING </s>
-0.3010 SO EXCITING </s>
-0.3010 SO FAR SO
-0.3010 SO FRUSTRATING </s>
-0.3010 SO GOOD </s>
-0.3010 SO MUCH NOISE
-0.3010 SO WONDERFUL </s>
-0.3010 SOME COFFEE </s>
-0.3010 STAY AT HOME
-0.3010 STUNNING IS THE
-0.3010 SWEAT OFF MY
-0.3010 TAKE THE DOG
-0.3010 THANK YOU </s>
-0.3010 THANKS A MILLION
-0.3010 THAT GOING </s>
-0.3010 THAT IS SO
-0.3010 THE DOG FOR
-0.3010 THE DOGS </s>
-0.3010 THE SHOPS TODAY
-0.3010 THE TIP OF
-0.3010 THE WEATHER TODAY
-0.3010 THESE DAYS </s>
-0.3010 THEY’RE MAKING SO
-0.3010 THINGS ARE LOOKING
-0.3010 THINGS COULDN’T GET
-0.3010 THINK STRAIGHT </s>
-0.3010 THINKING ABOUT </s>
-0.3010 THIS AFTERNOON </s>
-0.3010 THIS COUNTRY </s>
-0.3010 THIS WEEKEND </s>
-0.3010 THOSE DAYS </s>
-0.3010 TIME ARE YOU
-0.3010 TIME DID YOU
-0.3010 TIME DO WE
-0.3010 TIME IS YOUR
-0.3010 TIME NO SEE
-0.3010 TIP OF MY
-0.3010 TO BE THERE
-0.3010 TO BUY MILK
-0.3010 TO CATCH A
-0.3010 TO CHAT </s>
-0.3010 TO DO </s>
-0.3010 TO EAT </s>
-0.3010 TO GET TOGETHER
-0.3010 TO GO TO
-0.3010 TO GRAB A
-0.3010 TO MEET UP
-0.3010 TO THE SHOPS
-0.3010 TO THIS WEEKEND
-0.3010 TO UNWIND THIS
-0.3010 TOGETHER ON SATURDAY
-0.3010 TONGUE BUT I
-0.3010 TOO MUCH </s>
-0.3010 UNWIND THIS WEEKEND
-0.3010 UP NEXT WEEK
-0.6021 UP TO </s>
-0.6021 UP TO THIS
-0.3010 US DO IT
-0.3010 US GET GOING
-0.3010 WAIT TO UNWIND
-0.7782 WANT TO DO
-0.7782 WANT TO EAT
-0.7782 WANT TO MEET
-0.3010 WAS YOUR WEEKEND
-0.3010 WASTE OF TIME
-0.3010 WE ARE HAVING
-0.3010 WE COULD DO
-0.3010 WE EAT OUT
-0.3010 WE GRAB A
-0.3010 WE NEED TO
-0.3010 WE WILL BE
-0.3010 WEATHER TODAY </s>
-0.3010 WEATHER WE ARE
-0.3010 WEDNESDAY NIGHT </s>
-0.3010 WELL AT LEAST
-0.3010 WHAT A WASTE
-0.3010 WHAT ARE YOU
-0.3010 WHAT DO YOU
-0.9031 WHAT IS EATING
-0.9031 WHAT IS FOR
-0.9031 WHAT IS HAPPENING
-0.9031 WHAT IS ON
-0.3010 WHAT MISERABLE WEATHER
-0.9031 WHAT TIME ARE
-0.9031 WHAT TIME DID
-0.9031 WHAT TIME DO
-0.9031 WHAT TIME IS
-0.7782 WHEN YOU FREE
-0.4771 WHEN YOU GET
-0.6021 WHERE ARE MY
-0.6021 WHERE ARE YOU
-0.3010 WHERE YOU ARE
-0.6021 WILL BE BACK
-0.6021 WILL BE LATE
-0.3010 WILL CHECK IF
-0.3010 WITH ANYTHING </s>
-0.3010 WORKDAY LOOKING </s>
-0.3010 WORRY ABOUT IT
-0.3010 WOULD LOVE TO
-0.3010 WOULD RATHER STAY
-0.6021 WOULD YOU LIKE
-0.6021 WOULD YOU MIND
-0.3010 YES PLEASE </s>
-0.7782 YOU ARE BEING
-0.7782 YOU ARE COMING
-0.7782 YOU ARE JOKING
-0.3010 YOU BUSY OR
-0.3010 YOU COMING </s>
-0.3010 YOU FED THE
-0.3010 YOU FEEL LIKE
-0.3010 YOU FEELING TODAY
-0.6021 YOU FREE </s>
-0.6021 YOU FREE TO
-0.7782 YOU GET A
-0.7782 YOU GET HOME
-0.7782 YOU GET UP
-0.6021 YOU GETTING HOME
-0.6021 YOU GETTING UP
-0.3010 YOU GIVE ME
-0.3010 YOU GOING </s>
-0.3010 YOU GOT MUCH
-0.6021 YOU HAVE A
-0.6021 YOU HAVE ANY
-0.3010 YOU KEEN TO
-0.3010 YOU LIKE TO
-0.3010 YOU MIND HELPING
-0.3010 YOU NEED ANYTHING
-0.3010 YOU READING </s>
-0.3010 YOU SOME COFFEE
-0.3010 YOU THINKING ABOUT
-0.3010 YOU TOO MUCH
-0.3010 YOU UP TO
-0.3010 YOU WANT TO
-0.3010 YOU WATCHING </s>
-0.3010 YOU WITH ANYTHING
-0.3010 YOUR FLIGHT </s>
-0.3010 YOUR MIND </s>
-0.3010 YOUR WEEKEND </s>
-0.3010 YOUR WORKDAY LOOKING

\end\
